<?xml version="1.0"?>
<opencv_storage>
<cascade>
  <stageType>BOOST</stageType>
  <featureType>HAAR</featureType>
  <height>24</height>
  <width>24</width>
  <stageParams>
    <boostType>GAB</boostType>
    <minHitRate>9.9500000476837158e-01</minHitRate>
    <maxFalseAlarm>5.0000000000000000e-01</maxFalseAlarm>
    <weightTrimRate>9.4999998807907104e-01</weightTrimRate>
    <maxDepth>1</maxDepth>
    <maxWeakCount>100</maxWeakCount></stageParams>
  <featureParams>
    <maxCatCount>0</maxCatCount>
    <featSize>1</featSize>
    <mode>BASIC</mode></featureParams>
  <stageNum>14</stageNum>
  <stages>
    <!-- stage 0 -->
    <_>
      <maxWeakCount>5</maxWeakCount>
      <stageThreshold>-1.6429294347763062e+00</stageThreshold>
      <weakClassifiers>
        <_>
          <internalNodes>
            0 -1 43 -7.2227224707603455e-02</internalNodes>
          <leafValues>
            1.7241379618644714e-01 -9.3346381187438965e-01</leafValues></_>
        <_>
          <internalNodes>
            0 -1 65 -3.4519337117671967e-02</internalNodes>
          <leafValues>
            4.8645311594009399e-01 -7.2907215356826782e-01</leafValues></_>
        <_>
          <internalNodes>
            0 -1 55 -5.9073958545923233e-03</internalNodes>
          <leafValues>
            4.8500737547874451e-01 -5.7313686609268188e-01</leafValues></_>
        <_>
          <internalNodes>
            0 -1 41 -6.5581337548792362e-03</internalNodes>
          <leafValues>
            3.0131483078002930e-01 -8.1627416610717773e-01</leafValues></_>
        <_>
          <internalNodes>
            0 -1 10 6.1075659468770027e-03</internalNodes>
          <leafValues>
            -6.3104224205017090e-01 3.5087329149246216e-01</leafValues></_></weakClassifiers></_>
    <!-- stage 1 -->
    <_>
      <maxWeakCount>5</maxWeakCount>
      <stageThreshold>-2.2370367050170898e+00</stageThreshold>
      <weakClassifiers>
        <_>
          <internalNodes>
            0 -1 24 -2.0404361188411713e-01</internalNodes>
          <leafValues>
            7.7777779102325439e-01 -9.1746640205383301e-01</leafValues></_>
        <_>
          <internalNodes>
            0 -1 52 -5.8814126998186111e-02</internalNodes>
          <leafValues>
            -1.1051455885171890e-01 -7.8840452432632446e-01</leafValues></_>
        <_>
          <internalNodes>
            0 -1 13 -5.7034305064007640e-04</internalNodes>
          <leafValues>
            -8.7339484691619873e-01 7.9260177910327911e-02</leafValues></_>
        <_>
          <internalNodes>
            0 -1 84 1.9484806398395449e-04</internalNodes>
          <leafValues>
            1.7649345099925995e-01 -7.8791165351867676e-01</leafValues></_>
        <_>
          <internalNodes>
            0 -1 82 -1.2801098637282848e-03</internalNodes>
          <leafValues>
            -9.1712117195129395e-01 1.6573570668697357e-01</leafValues></_></weakClassifiers></_>
    <!-- stage 2 -->
    <_>
      <maxWeakCount>5</maxWeakCount>
      <stageThreshold>-1.6249670982360840e+00</stageThreshold>
      <weakClassifiers>
        <_>
          <internalNodes>
            0 -1 58 -9.7076874226331711e-03</internalNodes>
          <leafValues>
            9.0909093618392944e-02 -9.2419826984405518e-01</leafValues></_>
        <_>
          <internalNodes>
            0 -1 36 1.2449352070689201e-02</internalNodes>
          <leafValues>
            -6.5871429443359375e-01 5.2380394935607910e-01</leafValues></_>
        <_>
          <internalNodes>
            0 -1 70 1.0493936948478222e-02</internalNodes>
          <leafValues>
            -4.3602976202964783e-01 4.0247744321823120e-01</leafValues></_>
        <_>
          <internalNodes>
            0 -1 83 -2.6783178327605128e-04</internalNodes>
          <leafValues>
            -8.1559598445892334e-01 2.1266712248325348e-01</leafValues></_>
        <_>
          <internalNodes>
            0 -1 62 -1.4187862689141184e-05</internalNodes>
          <leafValues>
            3.7106403708457947e-01 -5.2409851551055908e-01</leafValues></_></weakClassifiers></_>
    <!-- stage 3 -->
    <_>
      <maxWeakCount>5</maxWeakCount>
      <stageThreshold>-1.7398036718368530e+00</stageThreshold>
      <weakClassifiers>
        <_>
          <internalNodes>
            0 -1 14 -1.5021029114723206e-01</internalNodes>
          <leafValues>
            7.1428573131561279e-01 -9.1379308700561523e-01</leafValues></_>
        <_>
          <internalNodes>
            0 -1 45 -8.4951203316450119e-03</internalNodes>
          <leafValues>
            5.3463476896286011e-01 -6.4555066823959351e-01</leafValues></_>
        <_>
          <internalNodes>
            0 -1 71 1.2515077833086252e-04</internalNodes>
          <leafValues>
            1.4865681529045105e-01 -7.6200598478317261e-01</leafValues></_>
        <_>
          <internalNodes>
            0 -1 11 2.7716431766748428e-02</internalNodes>
          <leafValues>
            1.7182412743568420e-01 -8.3225488662719727e-01</leafValues></_>
        <_>
          <internalNodes>
            0 -1 77 1.3245602604001760e-03</internalNodes>
          <leafValues>
            -3.4450322389602661e-01 5.0313812494277954e-01</leafValues></_></weakClassifiers></_>
    <!-- stage 4 -->
    <_>
      <maxWeakCount>7</maxWeakCount>
      <stageThreshold>-1.9805808067321777e+00</stageThreshold>
      <weakClassifiers>
        <_>
          <internalNodes>
            0 -1 79 2.0420610904693604e-02</internalNodes>
          <leafValues>
            -9.1196173429489136e-01 6.6666668653488159e-01</leafValues></_>
        <_>
          <internalNodes>
            0 -1 34 -7.9385250806808472e-02</internalNodes>
          <leafValues>
            1.4377234876155853e-01 -6.8624490499496460e-01</leafValues></_>
        <_>
          <internalNodes>
            0 -1 54 -4.0680728852748871e-03</internalNodes>
          <leafValues>
            1.7858268320560455e-01 -6.9151616096496582e-01</leafValues></_>
        <_>
          <internalNodes>
            0 -1 51 -2.6803640648722649e-03</internalNodes>
          <leafValues>
            -6.7266529798507690e-01 2.0345135033130646e-01</leafValues></_>
        <_>
          <internalNodes>
            0 -1 3 -4.2272469727322459e-04</internalNodes>
          <leafValues>
            -7.2575551271438599e-01 2.2832320630550385e-01</leafValues></_>
        <_>
          <internalNodes>
            0 -1 26 7.4194408953189850e-02</internalNodes>
          <leafValues>
            -2.3189878463745117e-01 7.6885449886322021e-01</leafValues></_>
        <_>
          <internalNodes>
            0 -1 37 -1.7432142049074173e-03</internalNodes>
          <leafValues>
            -7.6083260774612427e-01 2.2096756100654602e-01</leafValues></_></weakClassifiers></_>
    <!-- stage 5 -->
    <_>
      <maxWeakCount>6</maxWeakCount>
      <stageThreshold>-1.9586511850357056e+00</stageThreshold>
      <weakClassifiers>
        <_>
          <internalNodes>
            0 -1 17 -4.0614672005176544e-02</internalNodes>
          <leafValues>
            6.6666668653488159e-01 -9.1196173429489136e-01</leafValues></_>
        <_>
          <internalNodes>
            0 -1 42 -1.9145186990499496e-02</internalNodes>
          <leafValues>
            -1.7292603850364685e-01 -7.7394610643386841e-01</leafValues></_>
        <_>
          <internalNodes>
            0 -1 48 -8.5401739925146103e-03</internalNodes>
          <leafValues>
            3.2650119066238403e-01 -4.1974821686744690e-01</leafValues></_>
        <_>
          <internalNodes>
            0 -1 59 2.4141916073858738e-03</internalNodes>
          <leafValues>
            2.2824688255786896e-01 -6.5603137016296387e-01</leafValues></_>
        <_>
          <internalNodes>
            0 -1 47 1.5825532376766205e-02</internalNodes>
          <leafValues>
            -2.0547778904438019e-01 6.4783650636672974e-01</leafValues></_>
        <_>
          <internalNodes>
            0 -1 38 8.0169702414423227e-05</internalNodes>
          <leafValues>
            -3.6569750308990479e-01 4.0749397873878479e-01</leafValues></_></weakClassifiers></_>
    <!-- stage 6 -->
    <_>
      <maxWeakCount>7</maxWeakCount>
      <stageThreshold>-2.0551307201385498e+00</stageThreshold>
      <weakClassifiers>
        <_>
          <internalNodes>
            0 -1 5 -1.1742357164621353e-01</internalNodes>
          <leafValues>
            6.0000002384185791e-01 -9.1013383865356445e-01</leafValues></_>
        <_>
          <internalNodes>
            0 -1 29 -9.1610498726367950e-02</internalNodes>
          <leafValues>
            -1.0646311566233635e-02 -6.6932946443557739e-01</leafValues></_>
        <_>
          <internalNodes>
            0 -1 40 1.2041259324178100e-03</internalNodes>
          <leafValues>
            8.5313357412815094e-02 -7.9068690538406372e-01</leafValues></_>
        <_>
          <internalNodes>
            0 -1 39 8.9105434715747833e-02</internalNodes>
          <leafValues>
            -2.6110902428627014e-01 5.8267110586166382e-01</leafValues></_>
        <_>
          <internalNodes>
            0 -1 2 -7.1880989708006382e-04</internalNodes>
          <leafValues>
            -7.7830064296722412e-01 2.1607567369937897e-01</leafValues></_>
        <_>
          <internalNodes>
            0 -1 0 -1.0897927731275558e-01</internalNodes>
          <leafValues>
            4.4149678945541382e-01 -3.3221068978309631e-01</leafValues></_>
        <_>
          <internalNodes>
            0 -1 81 5.8118253946304321e-04</internalNodes>
          <leafValues>
            1.5195651352405548e-01 -1.</leafValues></_></weakClassifiers></_>
    <!-- stage 7 -->
    <_>
      <maxWeakCount>6</maxWeakCount>
      <stageThreshold>-2.1731443405151367e+00</stageThreshold>
      <weakClassifiers>
        <_>
          <internalNodes>
            0 -1 49 -1.4754179865121841e-02</internalNodes>
          <leafValues>
            1. -9.1021966934204102e-01</leafValues></_>
        <_>
          <internalNodes>
            0 -1 46 1.7074648290872574e-02</internalNodes>
          <leafValues>
            -6.7891186475753784e-01 9.9930420517921448e-02</leafValues></_>
        <_>
          <internalNodes>
            0 -1 12 -4.3930322863161564e-03</internalNodes>
          <leafValues>
            -6.2298476696014404e-01 1.7428056895732880e-01</leafValues></_>
        <_>
          <internalNodes>
            0 -1 22 -1.4632518286816776e-05</internalNodes>
          <leafValues>
            2.5919815897941589e-01 -5.0244325399398804e-01</leafValues></_>
        <_>
          <internalNodes>
            0 -1 61 -2.2321525029838085e-03</internalNodes>
          <leafValues>
            3.9026358723640442e-01 -3.8038367033004761e-01</leafValues></_>
        <_>
          <internalNodes>
            0 -1 4 -2.2288351319730282e-03</internalNodes>
          <leafValues>
            -9.1482990980148315e-01 1.4295664429664612e-01</leafValues></_></weakClassifiers></_>
    <!-- stage 8 -->
    <_>
      <maxWeakCount>8</maxWeakCount>
      <stageThreshold>-1.9993586540222168e+00</stageThreshold>
      <weakClassifiers>
        <_>
          <internalNodes>
            0 -1 8 -5.3568098694086075e-02</internalNodes>
          <leafValues>
            5.0000000000000000e-01 -9.1371047496795654e-01</leafValues></_>
        <_>
          <internalNodes>
            0 -1 73 -3.1828754581511021e-03</internalNodes>
          <leafValues>
            9.1880559921264648e-02 -6.6150993108749390e-01</leafValues></_>
        <_>
          <internalNodes>
            0 -1 69 -5.9499782510101795e-03</internalNodes>
          <leafValues>
            5.5607426166534424e-01 -3.0359950661659241e-01</leafValues></_>
        <_>
          <internalNodes>
            0 -1 75 -5.8155792066827416e-04</internalNodes>
          <leafValues>
            4.5721513032913208e-01 -2.9066419601440430e-01</leafValues></_>
        <_>
          <internalNodes>
            0 -1 31 -1.5056945849210024e-03</internalNodes>
          <leafValues>
            3.7252375483512878e-01 -3.6060702800750732e-01</leafValues></_>
        <_>
          <internalNodes>
            0 -1 64 -1.1982126161456108e-03</internalNodes>
          <leafValues>
            4.0054574608802795e-01 -3.5938313603401184e-01</leafValues></_>
        <_>
          <internalNodes>
            0 -1 7 -4.1679413989186287e-03</internalNodes>
          <leafValues>
            -7.7958327531814575e-01 1.6701500117778778e-01</leafValues></_>
        <_>
          <internalNodes>
            0 -1 78 3.4680929966270924e-03</internalNodes>
          <leafValues>
            1.5637953579425812e-01 -8.5098588466644287e-01</leafValues></_></weakClassifiers></_>
    <!-- stage 9 -->
    <_>
      <maxWeakCount>7</maxWeakCount>
      <stageThreshold>-1.7209458351135254e+00</stageThreshold>
      <weakClassifiers>
        <_>
          <internalNodes>
            0 -1 18 -7.3396012187004089e-02</internalNodes>
          <leafValues>
            -8.8627505725830601e-17 -9.1868346929550171e-01</leafValues></_>
        <_>
          <internalNodes>
            0 -1 57 -1.1465121060609818e-02</internalNodes>
          <leafValues>
            -5.5469617247581482e-02 -6.8584281206130981e-01</leafValues></_>
        <_>
          <internalNodes>
            0 -1 9 -2.4160882458090782e-03</internalNodes>
          <leafValues>
            -9.3191111087799072e-01 2.1691365167498589e-02</leafValues></_>
        <_>
          <internalNodes>
            0 -1 67 -1.7152080545201898e-04</internalNodes>
          <leafValues>
            4.0196779370307922e-01 -3.3076420426368713e-01</leafValues></_>
        <_>
          <internalNodes>
            0 -1 66 -2.6331346016377211e-03</internalNodes>
          <leafValues>
            4.4527751207351685e-01 -3.2156538963317871e-01</leafValues></_>
        <_>
          <internalNodes>
            0 -1 44 9.6359830349683762e-03</internalNodes>
          <leafValues>
            -3.4394073486328125e-01 3.8498592376708984e-01</leafValues></_>
        <_>
          <internalNodes>
            0 -1 85 1.2513907859101892e-03</internalNodes>
          <leafValues>
            1.2923279404640198e-01 -9.3118929862976074e-01</leafValues></_></weakClassifiers></_>
    <!-- stage 10 -->
    <_>
      <maxWeakCount>7</maxWeakCount>
      <stageThreshold>-2.1612603664398193e+00</stageThreshold>
      <weakClassifiers>
        <_>
          <internalNodes>
            0 -1 16 -2.7779430150985718e-02</internalNodes>
          <leafValues>
            1. -9.1021966934204102e-01</leafValues></_>
        <_>
          <internalNodes>
            0 -1 23 -2.4403568357229233e-02</internalNodes>
          <leafValues>
            2.6140937209129333e-01 -6.3895601034164429e-01</leafValues></_>
        <_>
          <internalNodes>
            0 -1 72 -8.0603688955307007e-02</internalNodes>
          <leafValues>
            3.1378155946731567e-01 -4.5282566547393799e-01</leafValues></_>
        <_>
          <internalNodes>
            0 -1 32 -1.0609626770019531e-03</internalNodes>
          <leafValues>
            3.6763483285903931e-01 -3.3247160911560059e-01</leafValues></_>
        <_>
          <internalNodes>
            0 -1 28 6.4807565649971366e-05</internalNodes>
          <leafValues>
            -5.1120454072952271e-01 2.7888825535774231e-01</leafValues></_>
        <_>
          <internalNodes>
            0 -1 6 -2.9121227562427521e-03</internalNodes>
          <leafValues>
            -6.5566897392272949e-01 2.4286355078220367e-01</leafValues></_>
        <_>
          <internalNodes>
            0 -1 76 -2.3778063768986613e-04</internalNodes>
          <leafValues>
            3.9952927827835083e-01 -3.4853917360305786e-01</leafValues></_></weakClassifiers></_>
    <!-- stage 11 -->
    <_>
      <maxWeakCount>6</maxWeakCount>
      <stageThreshold>-1.9713374376296997e+00</stageThreshold>
      <weakClassifiers>
        <_>
          <internalNodes>
            0 -1 74 3.1283579766750336e-02</internalNodes>
          <leafValues>
            -9.1196173429489136e-01 6.6666668653488159e-01</leafValues></_>
        <_>
          <internalNodes>
            0 -1 53 5.9271985664963722e-03</internalNodes>
          <leafValues>
            -6.9133520126342773e-01 -1.1058700084686279e-01</leafValues></_>
        <_>
          <internalNodes>
            0 -1 60 3.7830680957995355e-04</internalNodes>
          <leafValues>
            -5.3714936971664429e-01 1.5873026847839355e-01</leafValues></_>
        <_>
          <internalNodes>
            0 -1 80 1.1738948523998260e-03</internalNodes>
          <leafValues>
            2.2241741418838501e-01 -5.6937861442565918e-01</leafValues></_>
        <_>
          <internalNodes>
            0 -1 35 -8.2681467756628990e-03</internalNodes>
          <leafValues>
            -7.9602396488189697e-01 1.8939828872680664e-01</leafValues></_>
        <_>
          <internalNodes>
            0 -1 56 -1.7695609130896628e-05</internalNodes>
          <leafValues>
            2.5788363814353943e-01 -4.5687198638916016e-01</leafValues></_></weakClassifiers></_>
    <!-- stage 12 -->
    <_>
      <maxWeakCount>6</maxWeakCount>
      <stageThreshold>-1.8654668331146240e+00</stageThreshold>
      <weakClassifiers>
        <_>
          <internalNodes>
            0 -1 25 1.5140479430556297e-02</internalNodes>
          <leafValues>
            -9.1021966934204102e-01 1.</leafValues></_>
        <_>
          <internalNodes>
            0 -1 30 -7.9275816679000854e-02</internalNodes>
          <leafValues>
            4.9242079257965088e-01 -6.2158697843551636e-01</leafValues></_>
        <_>
          <internalNodes>
            0 -1 21 -7.8087560832500458e-02</internalNodes>
          <leafValues>
            4.7112423181533813e-01 -3.4536871314048767e-01</leafValues></_>
        <_>
          <internalNodes>
            0 -1 50 -2.8072609566152096e-03</internalNodes>
          <leafValues>
            3.2388743758201599e-01 -3.9376220107078552e-01</leafValues></_>
        <_>
          <internalNodes>
            0 -1 15 -8.6345782619901001e-05</internalNodes>
          <leafValues>
            -7.4161225557327271e-01 1.7612062394618988e-01</leafValues></_>
        <_>
          <internalNodes>
            0 -1 68 -2.4496540427207947e-03</internalNodes>
          <leafValues>
            4.2943331599235535e-01 -3.2322004437446594e-01</leafValues></_></weakClassifiers></_>
    <!-- stage 13 -->
    <_>
      <maxWeakCount>6</maxWeakCount>
      <stageThreshold>-1.7281544208526611e+00</stageThreshold>
      <weakClassifiers>
        <_>
          <internalNodes>
            0 -1 20 2.9881513118743896e-01</internalNodes>
          <leafValues>
            -9.1204589605331421e-01 1.</leafValues></_>
        <_>
          <internalNodes>
            0 -1 27 -5.5145144462585449e-02</internalNodes>
          <leafValues>
            6.6430175304412842e-01 -6.1567729711532593e-01</leafValues></_>
        <_>
          <internalNodes>
            0 -1 19 -1.2911735102534294e-03</internalNodes>
          <leafValues>
            -8.9428335428237915e-01 9.6302047371864319e-02</leafValues></_>
        <_>
          <internalNodes>
            0 -1 63 3.5135344660375267e-05</internalNodes>
          <leafValues>
            -4.1859266161918640e-01 2.9145908355712891e-01</leafValues></_>
        <_>
          <internalNodes>
            0 -1 33 2.2972258739173412e-03</internalNodes>
          <leafValues>
            2.0677319169044495e-01 -7.0793133974075317e-01</leafValues></_>
        <_>
          <internalNodes>
            0 -1 1 -4.5199930667877197e-02</internalNodes>
          <leafValues>
            -9.6347439289093018e-01 1.1973892897367477e-01</leafValues></_></weakClassifiers></_></stages>
  <features>
    <_>
      <rects>
        <_>
          0 0 22 20 -1.</_>
        <_>
          0 0 11 10 2.</_>
        <_>
          11 10 11 10 2.</_></rects>
      <tilted>0</tilted></_>
    <_>
      <rects>
        <_>
          0 2 2 21 -1.</_>
        <_>
          0 9 2 7 3.</_></rects>
      <tilted>0</tilted></_>
    <_>
      <rects>
        <_>
          0 2 6 1 -1.</_>
        <_>
          3 2 3 1 2.</_></rects>
      <tilted>0</tilted></_>
    <_>
      <rects>
        <_>
          0 4 2 6 -1.</_>
        <_>
          0 4 1 3 2.</_>
        <_>
          1 7 1 3 2.</_></rects>
      <tilted>0</tilted></_>
    <_>
      <rects>
        <_>
          0 4 7 3 -1.</_>
        <_>
          0 5 7 1 3.</_></rects>
      <tilted>0</tilted></_>
    <_>
      <rects>
        <_>
          0 9 8 8 -1.</_>
        <_>
          4 9 4 8 2.</_></rects>
      <tilted>0</tilted></_>
    <_>
      <rects>
        <_>
          0 10 22 2 -1.</_>
        <_>
          0 10 11 1 2.</_>
        <_>
          11 11 11 1 2.</_></rects>
      <tilted>0</tilted></_>
    <_>
      <rects>
        <_>
          0 12 4 10 -1.</_>
        <_>
          0 12 2 5 2.</_>
        <_>
          2 17 2 5 2.</_></rects>
      <tilted>0</tilted></_>
    <_>
      <rects>
        <_>
          0 12 12 2 -1.</_>
        <_>
          6 12 6 2 2.</_></rects>
      <tilted>0</tilted></_>
    <_>
      <rects>
        <_>
          0 20 4 4 -1.</_>
        <_>
          0 20 2 2 2.</_>
        <_>
          2 22 2 2 2.</_></rects>
      <tilted>0</tilted></_>
    <_>
      <rects>
        <_>
          0 20 24 4 -1.</_>
        <_>
          0 22 24 2 2.</_></rects>
      <tilted>0</tilted></_>
    <_>
      <rects>
        <_>
          0 21 22 3 -1.</_>
        <_>
          11 21 11 3 2.</_></rects>
      <tilted>0</tilted></_>
    <_>
      <rects>
        <_>
          0 23 24 1 -1.</_>
        <_>
          12 23 12 1 2.</_></rects>
      <tilted>0</tilted></_>
    <_>
      <rects>
        <_>
          1 0 6 1 -1.</_>
        <_>
          4 0 3 1 2.</_></rects>
      <tilted>0</tilted></_>
    <_>
      <rects>
        <_>
          1 5 10 9 -1.</_>
        <_>
          6 5 5 9 2.</_></rects>
      <tilted>0</tilted></_>
    <_>
      <rects>
        <_>
          2 4 2 1 -1.</_>
        <_>
          3 4 1 1 2.</_></rects>
      <tilted>0</tilted></_>
    <_>
      <rects>
        <_>
          2 8 4 8 -1.</_>
        <_>
          2 8 2 4 2.</_>
        <_>
          4 12 2 4 2.</_></rects>
      <tilted>0</tilted></_>
    <_>
      <rects>
        <_>
          2 8 6 4 -1.</_>
        <_>
          5 8 3 4 2.</_></rects>
      <tilted>0</tilted></_>
    <_>
      <rects>
        <_>
          2 14 9 7 -1.</_>
        <_>
          5 14 3 7 3.</_></rects>
      <tilted>0</tilted></_>
    <_>
      <rects>
        <_>
          2 15 2 8 -1.</_>
        <_>
          2 15 1 4 2.</_>
        <_>
          3 19 1 4 2.</_></rects>
      <tilted>0</tilted></_>
    <_>
      <rects>
        <_>
          3 1 12 18 -1.</_>
        <_>
          3 7 12 6 3.</_></rects>
      <tilted>0</tilted></_>
    <_>
      <rects>
        <_>
          3 3 10 15 -1.</_>
        <_>
          3 8 10 5 3.</_></rects>
      <tilted>0</tilted></_>
    <_>
      <rects>
        <_>
          3 4 9 2 -1.</_>
        <_>
          6 4 3 2 3.</_></rects>
      <tilted>0</tilted></_>
    <_>
      <rects>
        <_>
          3 12 6 3 -1.</_>
        <_>
          6 12 3 3 2.</_></rects>
      <tilted>0</tilted></_>
    <_>
      <rects>
        <_>
          3 12 21 5 -1.</_>
        <_>
          10 12 7 5 3.</_></rects>
      <tilted>0</tilted></_>
    <_>
      <rects>
        <_>
          4 9 10 2 -1.</_>
        <_>
          4 9 5 1 2.</_>
        <_>
          9 10 5 1 2.</_></rects>
      <tilted>0</tilted></_>
    <_>
      <rects>
        <_>
          4 11 14 6 -1.</_>
        <_>
          11 11 7 6 2.</_></rects>
      <tilted>0</tilted></_>
    <_>
      <rects>
        <_>
          4 12 6 9 -1.</_>
        <_>
          6 12 2 9 3.</_></rects>
      <tilted>0</tilted></_>
    <_>
      <rects>
        <_>
          4 21 9 3 -1.</_>
        <_>
          7 21 3 3 3.</_></rects>
      <tilted>0</tilted></_>
    <_>
      <rects>
        <_>
          5 0 14 8 -1.</_>
        <_>
          5 4 14 4 2.</_></rects>
      <tilted>0</tilted></_>
    <_>
      <rects>
        <_>
          5 5 12 10 -1.</_>
        <_>
          5 5 6 5 2.</_>
        <_>
          11 10 6 5 2.</_></rects>
      <tilted>0</tilted></_>
    <_>
      <rects>
        <_>
          5 11 12 2 -1.</_>
        <_>
          5 11 6 1 2.</_>
        <_>
          11 12 6 1 2.</_></rects>
      <tilted>0</tilted></_>
    <_>
      <rects>
        <_>
          5 18 8 2 -1.</_>
        <_>
          5 19 8 1 2.</_></rects>
      <tilted>0</tilted></_>
    <_>
      <rects>
        <_>
          5 22 6 2 -1.</_>
        <_>
          7 22 2 2 3.</_></rects>
      <tilted>0</tilted></_>
    <_>
      <rects>
        <_>
          6 0 11 8 -1.</_>
        <_>
          6 4 11 4 2.</_></rects>
      <tilted>0</tilted></_>
    <_>
      <rects>
        <_>
          6 4 12 4 -1.</_>
        <_>
          6 4 6 2 2.</_>
        <_>
          12 6 6 2 2.</_></rects>
      <tilted>0</tilted></_>
    <_>
      <rects>
        <_>
          6 14 15 2 -1.</_>
        <_>
          6 15 15 1 2.</_></rects>
      <tilted>0</tilted></_>
    <_>
      <rects>
        <_>
          6 23 6 1 -1.</_>
        <_>
          9 23 3 1 2.</_></rects>
      <tilted>0</tilted></_>
    <_>
      <rects>
        <_>
          7 6 3 2 -1.</_>
        <_>
          7 7 3 1 2.</_></rects>
      <tilted>0</tilted></_>
    <_>
      <rects>
        <_>
          7 7 16 10 -1.</_>
        <_>
          7 7 8 5 2.</_>
        <_>
          15 12 8 5 2.</_></rects>
      <tilted>0</tilted></_>
    <_>
      <rects>
        <_>
          7 20 4 2 -1.</_>
        <_>
          9 20 2 2 2.</_></rects>
      <tilted>0</tilted></_>
    <_>
      <rects>
        <_>
          8 0 2 18 -1.</_>
        <_>
          8 9 2 9 2.</_></rects>
      <tilted>0</tilted></_>
    <_>
      <rects>
        <_>
          8 1 12 12 -1.</_>
        <_>
          12 1 4 12 3.</_></rects>
      <tilted>0</tilted></_>
    <_>
      <rects>
        <_>
          8 10 9 11 -1.</_>
        <_>
          11 10 3 11 3.</_></rects>
      <tilted>0</tilted></_>
    <_>
      <rects>
        <_>
          8 12 10 5 -1.</_>
        <_>
          13 12 5 5 2.</_></rects>
      <tilted>0</tilted></_>
    <_>
      <rects>
        <_>
          8 13 3 4 -1.</_>
        <_>
          9 13 1 4 3.</_></rects>
      <tilted>0</tilted></_>
    <_>
      <rects>
        <_>
          8 15 6 4 -1.</_>
        <_>
          10 15 2 4 3.</_></rects>
      <tilted>0</tilted></_>
    <_>
      <rects>
        <_>
          8 15 9 4 -1.</_>
        <_>
          11 15 3 4 3.</_></rects>
      <tilted>0</tilted></_>
    <_>
      <rects>
        <_>
          9 15 6 4 -1.</_>
        <_>
          11 15 2 4 3.</_></rects>
      <tilted>0</tilted></_>
    <_>
      <rects>
        <_>
          9 16 3 3 -1.</_>
        <_>
          10 16 1 3 3.</_></rects>
      <tilted>0</tilted></_>
    <_>
      <rects>
        <_>
          9 16 6 2 -1.</_>
        <_>
          11 16 2 2 3.</_></rects>
      <tilted>0</tilted></_>
    <_>
      <rects>
        <_>
          9 23 15 1 -1.</_>
        <_>
          14 23 5 1 3.</_></rects>
      <tilted>0</tilted></_>
    <_>
      <rects>
        <_>
          10 0 4 16 -1.</_>
        <_>
          10 8 4 8 2.</_></rects>
      <tilted>0</tilted></_>
    <_>
      <rects>
        <_>
          10 5 3 14 -1.</_>
        <_>
          11 5 1 14 3.</_></rects>
      <tilted>0</tilted></_>
    <_>
      <rects>
        <_>
          10 8 4 6 -1.</_>
        <_>
          10 11 4 3 2.</_></rects>
      <tilted>0</tilted></_>
    <_>
      <rects>
        <_>
          10 13 6 4 -1.</_>
        <_>
          12 13 2 4 3.</_></rects>
      <tilted>0</tilted></_>
    <_>
      <rects>
        <_>
          11 1 6 8 -1.</_>
        <_>
          11 1 3 4 2.</_>
        <_>
          14 5 3 4 2.</_></rects>
      <tilted>0</tilted></_>
    <_>
      <rects>
        <_>
          11 6 3 15 -1.</_>
        <_>
          12 6 1 15 3.</_></rects>
      <tilted>0</tilted></_>
    <_>
      <rects>
        <_>
          11 16 2 5 -1.</_>
        <_>
          12 16 1 5 2.</_></rects>
      <tilted>0</tilted></_>
    <_>
      <rects>
        <_>
          12 0 9 2 -1.</_>
        <_>
          15 0 3 2 3.</_></rects>
      <tilted>0</tilted></_>
    <_>
      <rects>
        <_>
          12 1 8 10 -1.</_>
        <_>
          16 1 4 10 2.</_></rects>
      <tilted>0</tilted></_>
    <_>
      <rects>
        <_>
          12 2 3 9 -1.</_>
        <_>
          12 5 3 3 3.</_></rects>
      <tilted>0</tilted></_>
    <_>
      <rects>
        <_>
          12 6 2 4 -1.</_>
        <_>
          12 6 1 2 2.</_>
        <_>
          13 8 1 2 2.</_></rects>
      <tilted>0</tilted></_>
    <_>
      <rects>
        <_>
          12 18 2 2 -1.</_>
        <_>
          12 18 1 1 2.</_>
        <_>
          13 19 1 1 2.</_></rects>
      <tilted>0</tilted></_>
    <_>
      <rects>
        <_>
          12 18 3 4 -1.</_>
        <_>
          13 18 1 4 3.</_></rects>
      <tilted>0</tilted></_>
    <_>
      <rects>
        <_>
          13 6 6 15 -1.</_>
        <_>
          15 6 2 15 3.</_></rects>
      <tilted>0</tilted></_>
    <_>
      <rects>
        <_>
          13 9 6 1 -1.</_>
        <_>
          15 9 2 1 3.</_></rects>
      <tilted>0</tilted></_>
    <_>
      <rects>
        <_>
          13 11 2 2 -1.</_>
        <_>
          13 11 1 1 2.</_>
        <_>
          14 12 1 1 2.</_></rects>
      <tilted>0</tilted></_>
    <_>
      <rects>
        <_>
          13 18 1 6 -1.</_>
        <_>
          13 20 1 2 3.</_></rects>
      <tilted>0</tilted></_>
    <_>
      <rects>
        <_>
          14 13 9 1 -1.</_>
        <_>
          17 13 3 1 3.</_></rects>
      <tilted>0</tilted></_>
    <_>
      <rects>
        <_>
          15 13 6 8 -1.</_>
        <_>
          17 13 2 8 3.</_></rects>
      <tilted>0</tilted></_>
    <_>
      <rects>
        <_>
          16 0 6 1 -1.</_>
        <_>
          19 0 3 1 2.</_></rects>
      <tilted>0</tilted></_>
    <_>
      <rects>
        <_>
          16 0 7 24 -1.</_>
        <_>
          16 8 7 8 3.</_></rects>
      <tilted>0</tilted></_>
    <_>
      <rects>
        <_>
          16 1 3 5 -1.</_>
        <_>
          17 1 1 5 3.</_></rects>
      <tilted>0</tilted></_>
    <_>
      <rects>
        <_>
          16 2 2 20 -1.</_>
        <_>
          16 2 1 10 2.</_>
        <_>
          17 12 1 10 2.</_></rects>
      <tilted>0</tilted></_>
    <_>
      <rects>
        <_>
          17 6 2 3 -1.</_>
        <_>
          17 7 2 1 3.</_></rects>
      <tilted>0</tilted></_>
    <_>
      <rects>
        <_>
          17 9 3 1 -1.</_>
        <_>
          18 9 1 1 3.</_></rects>
      <tilted>0</tilted></_>
    <_>
      <rects>
        <_>
          17 15 2 2 -1.</_>
        <_>
          18 15 1 2 2.</_></rects>
      <tilted>0</tilted></_>
    <_>
      <rects>
        <_>
          17 21 6 3 -1.</_>
        <_>
          19 21 2 3 3.</_></rects>
      <tilted>0</tilted></_>
    <_>
      <rects>
        <_>
          19 9 2 12 -1.</_>
        <_>
          20 9 1 12 2.</_></rects>
      <tilted>0</tilted></_>
    <_>
      <rects>
        <_>
          20 0 1 21 -1.</_>
        <_>
          20 7 1 7 3.</_></rects>
      <tilted>0</tilted></_>
    <_>
      <rects>
        <_>
          20 2 3 1 -1.</_>
        <_>
          21 2 1 1 3.</_></rects>
      <tilted>0</tilted></_>
    <_>
      <rects>
        <_>
          20 12 2 3 -1.</_>
        <_>
          20 13 2 1 3.</_></rects>
      <tilted>0</tilted></_>
    <_>
      <rects>
        <_>
          21 3 3 2 -1.</_>
        <_>
          22 3 1 2 3.</_></rects>
      <tilted>0</tilted></_>
    <_>
      <rects>
        <_>
          22 0 2 2 -1.</_>
        <_>
          23 0 1 2 2.</_></rects>
      <tilted>0</tilted></_>
    <_>
      <rects>
        <_>
          22 8 2 3 -1.</_>
        <_>
          23 8 1 3 2.</_></rects>
      <tilted>0</tilted></_></features></cascade>
</opencv_storage>
